<?xml version="1.0"?>
<opencv_storage>
<cascade>
  <stageType>BOOST</stageType>
  <featureType>HAAR</featureType>
  <height>24</height>
  <width>24</width>
  <stageParams>
    <boostType>GAB</boostType>
    <minHitRate>9.9500000476837158e-01</minHitRate>
    <maxFalseAlarm>5.0000000000000000e-01</maxFalseAlarm>
    <weightTrimRate>9.4999999999999996e-01</weightTrimRate>
    <maxDepth>1</maxDepth>
    <maxWeakCount>100</maxWeakCount></stageParams>
  <featureParams>
    <maxCatCount>0</maxCatCount>
    <featSize>1</featSize>
    <mode>BASIC</mode></featureParams>
  <stageNum>20</stageNum>
  <stages>
    <!-- stage 0 -->
    <_>
      <maxWeakCount>1</maxWeakCount>
      <stageThreshold>8.0000001192092896e-01</stageThreshold>
      <weakClassifiers>
        <_>
          <internalNodes>
            0 -1 3 -3.5250518471002579e-02</internalNodes>
          <leafValues>
            8.0000001192092896e-01 -1.</leafValues></_></weakClassifiers></_>
    <!-- stage 1 -->
    <_>
      <maxWeakCount>1</maxWeakCount>
      <stageThreshold>6.3636362552642822e-01</stageThreshold>
      <weakClassifiers>
        <_>
          <internalNodes>
            0 -1 13 -4.7412929125130177e-03</internalNodes>
          <leafValues>
            6.3636362552642822e-01 -1.</leafValues></_></weakClassifiers></_>
    <!-- stage 2 -->
    <_>
      <maxWeakCount>2</maxWeakCount>
      <stageThreshold>-1.2520296871662140e-01</stageThreshold>
      <weakClassifiers>
        <_>
          <internalNodes>
            0 -1 1 -3.5111641883850098e-01</internalNodes>
          <leafValues>
            1. -8.2352942228317261e-01</leafValues></_>
        <_>
          <internalNodes>
            0 -1 29 4.1151228360831738e-03</internalNodes>
          <leafValues>
            -1. 6.9832646846771240e-01</leafValues></_></weakClassifiers></_>
    <!-- stage 3 -->
    <_>
      <maxWeakCount>2</maxWeakCount>
      <stageThreshold>-1.9169187545776367e-01</stageThreshold>
      <weakClassifiers>
        <_>
          <internalNodes>
            0 -1 35 7.3940558359026909e-03</internalNodes>
          <leafValues>
            -8.1250000000000000e-01 7.6470589637756348e-01</leafValues></_>
        <_>
          <internalNodes>
            0 -1 31 5.3765892516821623e-04</internalNodes>
          <leafValues>
            -9.3590605258941650e-01 6.2080812454223633e-01</leafValues></_></weakClassifiers></_>
    <!-- stage 4 -->
    <_>
      <maxWeakCount>2</maxWeakCount>
      <stageThreshold>-1.6312099993228912e-01</stageThreshold>
      <weakClassifiers>
        <_>
          <internalNodes>
            0 -1 8 -2.2881394252181053e-02</internalNodes>
          <leafValues>
            6.6666668653488159e-01 -8.0645161867141724e-01</leafValues></_>
        <_>
          <internalNodes>
            0 -1 7 1.2827695172745734e-04</internalNodes>
          <leafValues>
            7.5648647546768188e-01 -8.2978767156600952e-01</leafValues></_></weakClassifiers></_>
    <!-- stage 5 -->
    <_>
      <maxWeakCount>2</maxWeakCount>
      <stageThreshold>-2.2785128653049469e-01</stageThreshold>
      <weakClassifiers>
        <_>
          <internalNodes>
            0 -1 5 -1.0672492906451225e-02</internalNodes>
          <leafValues>
            5.4545456171035767e-01 -9.2592591047286987e-01</leafValues></_>
        <_>
          <internalNodes>
            0 -1 0 1.8353845924139023e-02</internalNodes>
          <leafValues>
            -7.7330583333969116e-01 8.5396271944046021e-01</leafValues></_></weakClassifiers></_>
    <!-- stage 6 -->
    <_>
      <maxWeakCount>1</maxWeakCount>
      <stageThreshold>5.6521737575531006e-01</stageThreshold>
      <weakClassifiers>
        <_>
          <internalNodes>
            0 -1 4 -3.0576675198972225e-03</internalNodes>
          <leafValues>
            -1. 5.6521737575531006e-01</leafValues></_></weakClassifiers></_>
    <!-- stage 7 -->
    <_>
      <maxWeakCount>2</maxWeakCount>
      <stageThreshold>2.0504981279373169e-01</stageThreshold>
      <weakClassifiers>
        <_>
          <internalNodes>
            0 -1 32 -7.2055789642035961e-03</internalNodes>
          <leafValues>
            1. -7.2222220897674561e-01</leafValues></_>
        <_>
          <internalNodes>
            0 -1 6 -4.7708533704280853e-02</internalNodes>
          <leafValues>
            9.2727202177047729e-01 -7.3687547445297241e-01</leafValues></_></weakClassifiers></_>
    <!-- stage 8 -->
    <_>
      <maxWeakCount>2</maxWeakCount>
      <stageThreshold>-1.9684420526027679e-01</stageThreshold>
      <weakClassifiers>
        <_>
          <internalNodes>
            0 -1 15 -8.3937600255012512e-02</internalNodes>
          <leafValues>
            7.7777779102325439e-01 -8.7096774578094482e-01</leafValues></_>
        <_>
          <internalNodes>
            0 -1 18 -4.5435475185513496e-03</internalNodes>
          <leafValues>
            6.7412352561950684e-01 -8.2527625560760498e-01</leafValues></_></weakClassifiers></_>
    <!-- stage 9 -->
    <_>
      <maxWeakCount>2</maxWeakCount>
      <stageThreshold>-2.7923727035522461e-01</stageThreshold>
      <weakClassifiers>
        <_>
          <internalNodes>
            0 -1 12 -3.3885061275213957e-03</internalNodes>
          <leafValues>
            6.6666668653488159e-01 -8.0645161867141724e-01</leafValues></_>
        <_>
          <internalNodes>
            0 -1 19 -6.0558319091796875e-04</internalNodes>
          <leafValues>
            5.2721434831619263e-01 -1.</leafValues></_></weakClassifiers></_>
    <!-- stage 10 -->
    <_>
      <maxWeakCount>2</maxWeakCount>
      <stageThreshold>1.7988598346710205e-01</stageThreshold>
      <weakClassifiers>
        <_>
          <internalNodes>
            0 -1 33 1.0845668613910675e-02</internalNodes>
          <leafValues>
            -6.3157892227172852e-01 1.</leafValues></_>
        <_>
          <internalNodes>
            0 -1 9 -2.7889842167496681e-02</internalNodes>
          <leafValues>
            8.1594407558441162e-01 -8.2011401653289795e-01</leafValues></_></weakClassifiers></_>
    <!-- stage 11 -->
    <_>
      <maxWeakCount>3</maxWeakCount>
      <stageThreshold>2.1235419809818268e-01</stageThreshold>
      <weakClassifiers>
        <_>
          <internalNodes>
            0 -1 17 1.7941396217793226e-03</internalNodes>
          <leafValues>
            -8.5185188055038452e-01 4.5454546809196472e-01</leafValues></_>
        <_>
          <internalNodes>
            0 -1 26 1.2378455721773207e-04</internalNodes>
          <leafValues>
            5.3816694021224976e-01 -9.2300087213516235e-01</leafValues></_>
        <_>
          <internalNodes>
            0 -1 37 -6.5907508542295545e-05</internalNodes>
          <leafValues>
            -7.8035819530487061e-01 6.8186229467391968e-01</leafValues></_></weakClassifiers></_>
    <!-- stage 12 -->
    <_>
      <maxWeakCount>2</maxWeakCount>
      <stageThreshold>-8.8624007999897003e-02</stageThreshold>
      <weakClassifiers>
        <_>
          <internalNodes>
            0 -1 14 -4.6540427138097584e-04</internalNodes>
          <leafValues>
            -7.1428573131561279e-01 8.5714286565780640e-01</leafValues></_>
        <_>
          <internalNodes>
            0 -1 10 -2.4588122032582760e-03</internalNodes>
          <leafValues>
            6.2566173076629639e-01 -8.8264530897140503e-01</leafValues></_></weakClassifiers></_>
    <!-- stage 13 -->
    <_>
      <maxWeakCount>2</maxWeakCount>
      <stageThreshold>-3.5200309753417969e-01</stageThreshold>
      <weakClassifiers>
        <_>
          <internalNodes>
            0 -1 28 -9.9978453363291919e-05</internalNodes>
          <leafValues>
            5.7894736528396606e-01 -8.0000001192092896e-01</leafValues></_>
        <_>
          <internalNodes>
            0 -1 16 -8.7704969337210059e-04</internalNodes>
          <leafValues>
            6.0319966077804565e-01 -9.3095046281814575e-01</leafValues></_></weakClassifiers></_>
    <!-- stage 14 -->
    <_>
      <maxWeakCount>2</maxWeakCount>
      <stageThreshold>-1.7999796569347382e-01</stageThreshold>
      <weakClassifiers>
        <_>
          <internalNodes>
            0 -1 23 -1.5367086045444012e-02</internalNodes>
          <leafValues>
            6.4705884456634521e-01 -7.5000000000000000e-01</leafValues></_>
        <_>
          <internalNodes>
            0 -1 34 -1.0251880157738924e-03</internalNodes>
          <leafValues>
            7.1525746583938599e-01 -8.2705676555633545e-01</leafValues></_></weakClassifiers></_>
    <!-- stage 15 -->
    <_>
      <maxWeakCount>2</maxWeakCount>
      <stageThreshold>-2.8446656465530396e-01</stageThreshold>
      <weakClassifiers>
        <_>
          <internalNodes>
            0 -1 20 8.2983337342739105e-03</internalNodes>
          <leafValues>
            4.7826087474822998e-01 -9.2307692766189575e-01</leafValues></_>
        <_>
          <internalNodes>
            0 -1 36 2.7287921402603388e-03</internalNodes>
          <leafValues>
            -7.6272743940353394e-01 7.9742079973220825e-01</leafValues></_></weakClassifiers></_>
    <!-- stage 16 -->
    <_>
      <maxWeakCount>3</maxWeakCount>
      <stageThreshold>1.0707243531942368e-01</stageThreshold>
      <weakClassifiers>
        <_>
          <internalNodes>
            0 -1 24 -8.8895170483738184e-04</internalNodes>
          <leafValues>
            4.7826087474822998e-01 -9.2307692766189575e-01</leafValues></_>
        <_>
          <internalNodes>
            0 -1 11 -1.3034043367952108e-03</internalNodes>
          <leafValues>
            -8.5310268402099609e-01 4.9670913815498352e-01</leafValues></_>
        <_>
          <internalNodes>
            0 -1 21 7.8213610686361790e-04</internalNodes>
          <leafValues>
            5.7451802492141724e-01 -8.6789757013320923e-01</leafValues></_></weakClassifiers></_>
    <!-- stage 17 -->
    <_>
      <maxWeakCount>1</maxWeakCount>
      <stageThreshold>3.8461539149284363e-01</stageThreshold>
      <weakClassifiers>
        <_>
          <internalNodes>
            0 -1 30 1.6585562843829393e-04</internalNodes>
          <leafValues>
            3.8461539149284363e-01 -1.</leafValues></_></weakClassifiers></_>
    <!-- stage 18 -->
    <_>
      <maxWeakCount>2</maxWeakCount>
      <stageThreshold>-3.4540700912475586e-01</stageThreshold>
      <weakClassifiers>
        <_>
          <internalNodes>
            0 -1 25 -2.1202393691055477e-04</internalNodes>
          <leafValues>
            -8.5714286565780640e-01 5.2380955219268799e-01</leafValues></_>
        <_>
          <internalNodes>
            0 -1 27 -3.4609918948262930e-03</internalNodes>
          <leafValues>
            -8.6921650171279907e-01 6.7252475023269653e-01</leafValues></_></weakClassifiers></_>
    <!-- stage 19 -->
    <_>
      <maxWeakCount>2</maxWeakCount>
      <stageThreshold>-2.1932360529899597e-01</stageThreshold>
      <weakClassifiers>
        <_>
          <internalNodes>
            0 -1 2 -3.8965221028774977e-03</internalNodes>
          <leafValues>
            -8.6206895112991333e-01 6.0000002384185791e-01</leafValues></_>
        <_>
          <internalNodes>
            0 -1 22 4.6821918658679351e-05</internalNodes>
          <leafValues>
            6.9797992706298828e-01 -8.1932359933853149e-01</leafValues></_></weakClassifiers></_></stages>
  <features>
    <_>
      <rects>
        <_>
          0 1 6 22 -1.</_>
        <_>
          2 1 2 22 3.</_></rects>
      <tilted>0</tilted></_>
    <_>
      <rects>
        <_>
          0 2 24 17 -1.</_>
        <_>
          8 2 8 17 3.</_></rects>
      <tilted>0</tilted></_>
    <_>
      <rects>
        <_>
          0 9 10 4 -1.</_>
        <_>
          0 9 5 2 2.</_>
        <_>
          5 11 5 2 2.</_></rects>
      <tilted>0</tilted></_>
    <_>
      <rects>
        <_>
          0 10 21 6 -1.</_>
        <_>
          7 10 7 6 3.</_></rects>
      <tilted>0</tilted></_>
    <_>
      <rects>
        <_>
          1 0 22 1 -1.</_>
        <_>
          12 0 11 1 2.</_></rects>
      <tilted>0</tilted></_>
    <_>
      <rects>
        <_>
          1 6 14 2 -1.</_>
        <_>
          8 6 7 2 2.</_></rects>
      <tilted>0</tilted></_>
    <_>
      <rects>
        <_>
          1 12 8 6 -1.</_>
        <_>
          5 12 4 6 2.</_></rects>
      <tilted>0</tilted></_>
    <_>
      <rects>
        <_>
          2 0 2 3 -1.</_>
        <_>
          2 1 2 1 3.</_></rects>
      <tilted>0</tilted></_>
    <_>
      <rects>
        <_>
          2 0 6 14 -1.</_>
        <_>
          4 0 2 14 3.</_></rects>
      <tilted>0</tilted></_>
    <_>
      <rects>
        <_>
          2 0 6 15 -1.</_>
        <_>
          4 0 2 15 3.</_></rects>
      <tilted>0</tilted></_>
    <_>
      <rects>
        <_>
          2 6 4 9 -1.</_>
        <_>
          2 9 4 3 3.</_></rects>
      <tilted>0</tilted></_>
    <_>
      <rects>
        <_>
          2 7 17 3 -1.</_>
        <_>
          2 8 17 1 3.</_></rects>
      <tilted>0</tilted></_>
    <_>
      <rects>
        <_>
          3 0 3 16 -1.</_>
        <_>
          4 0 1 16 3.</_></rects>
      <tilted>0</tilted></_>
    <_>
      <rects>
        <_>
          3 0 3 10 -1.</_>
        <_>
          3 5 3 5 2.</_></rects>
      <tilted>0</tilted></_>
    <_>
      <rects>
        <_>
          3 0 12 1 -1.</_>
        <_>
          7 0 4 1 3.</_></rects>
      <tilted>0</tilted></_>
    <_>
      <rects>
        <_>
          3 0 15 15 -1.</_>
        <_>
          3 5 15 5 3.</_></rects>
      <tilted>0</tilted></_>
    <_>
      <rects>
        <_>
          3 2 6 2 -1.</_>
        <_>
          3 3 6 1 2.</_></rects>
      <tilted>0</tilted></_>
    <_>
      <rects>
        <_>
          5 1 2 14 -1.</_>
        <_>
          5 1 1 7 2.</_>
        <_>
          6 8 1 7 2.</_></rects>
      <tilted>0</tilted></_>
    <_>
      <rects>
        <_>
          5 4 13 6 -1.</_>
        <_>
          5 6 13 2 3.</_></rects>
      <tilted>0</tilted></_>
    <_>
      <rects>
        <_>
          6 0 4 6 -1.</_>
        <_>
          8 0 2 6 2.</_></rects>
      <tilted>0</tilted></_>
    <_>
      <rects>
        <_>
          7 0 14 1 -1.</_>
        <_>
          14 0 7 1 2.</_></rects>
      <tilted>0</tilted></_>
    <_>
      <rects>
        <_>
          8 4 8 6 -1.</_>
        <_>
          8 4 4 3 2.</_>
        <_>
          12 7 4 3 2.</_></rects>
      <tilted>0</tilted></_>
    <_>
      <rects>
        <_>
          8 7 6 8 -1.</_>
        <_>
          8 7 3 4 2.</_>
        <_>
          11 11 3 4 2.</_></rects>
      <tilted>0</tilted></_>
    <_>
      <rects>
        <_>
          9 11 8 12 -1.</_>
        <_>
          9 17 8 6 2.</_></rects>
      <tilted>0</tilted></_>
    <_>
      <rects>
        <_>
          13 1 4 2 -1.</_>
        <_>
          13 2 4 1 2.</_></rects>
      <tilted>0</tilted></_>
    <_>
      <rects>
        <_>
          13 4 3 2 -1.</_>
        <_>
          14 4 1 2 3.</_></rects>
      <tilted>0</tilted></_>
    <_>
      <rects>
        <_>
          15 18 6 6 -1.</_>
        <_>
          15 18 3 3 2.</_>
        <_>
          18 21 3 3 2.</_></rects>
      <tilted>0</tilted></_>
    <_>
      <rects>
        <_>
          16 4 1 10 -1.</_>
        <_>
          16 9 1 5 2.</_></rects>
      <tilted>0</tilted></_>
    <_>
      <rects>
        <_>
          16 6 3 3 -1.</_>
        <_>
          17 6 1 3 3.</_></rects>
      <tilted>0</tilted></_>
    <_>
      <rects>
        <_>
          16 6 8 3 -1.</_>
        <_>
          20 6 4 3 2.</_></rects>
      <tilted>0</tilted></_>
    <_>
      <rects>
        <_>
          17 0 2 1 -1.</_>
        <_>
          18 0 1 1 2.</_></rects>
      <tilted>0</tilted></_>
    <_>
      <rects>
        <_>
          17 2 2 5 -1.</_>
        <_>
          18 2 1 5 2.</_></rects>
      <tilted>0</tilted></_>
    <_>
      <rects>
        <_>
          17 12 6 4 -1.</_>
        <_>
          19 12 2 4 3.</_></rects>
      <tilted>0</tilted></_>
    <_>
      <rects>
        <_>
          18 7 6 7 -1.</_>
        <_>
          20 7 2 7 3.</_></rects>
      <tilted>0</tilted></_>
    <_>
      <rects>
        <_>
          18 7 6 4 -1.</_>
        <_>
          18 9 6 2 2.</_></rects>
      <tilted>0</tilted></_>
    <_>
      <rects>
        <_>
          19 7 4 6 -1.</_>
        <_>
          21 7 2 6 2.</_></rects>
      <tilted>0</tilted></_>
    <_>
      <rects>
        <_>
          20 16 4 5 -1.</_>
        <_>
          22 16 2 5 2.</_></rects>
      <tilted>0</tilted></_>
    <_>
      <rects>
        <_>
          22 6 2 6 -1.</_>
        <_>
          22 9 2 3 2.</_></rects>
      <tilted>0</tilted></_></features></cascade>
</opencv_storage>
